<?xml version="1.0"?>
<opencv_storage>
<opencv_ml_svm>
  <format>3</format>
  <svmType>C_SVC</svmType>
  <kernel>
    <type>RBF</type>
    <gamma>0.00015000000000000001</gamma></kernel>
  <C>0.10000000000000001</C>
  <term_criteria><epsilon>1.1920928955078125e-07</epsilon>
    <iterations>1000</iterations></term_criteria>
  <var_count>2</var_count>
  <class_count>2</class_count>
  <class_labels type_id="opencv-matrix">
    <rows>2</rows>
    <cols>1</cols>
    <dt>i</dt>
    <data>
      0 1</data></class_labels>
  <sv_total>44</sv_total>
  <support_vectors>
    <_>
      68. 110.</_>
    <_>
      65. 108.</_>
    <_>
      75. 8.</_>
    <_>
      114. 61.</_>
    <_>
      12. 57.</_>
    <_>
      107. 141.</_>
    <_>
      110. 80.</_>
    <_>
      37. 101.</_>
    <_>
      70. 136.</_>
    <_>
      36. 146.</_>
    <_>
      98. 51.</_>
    <_>
      135. 44.</_>
    <_>
      140. 126.</_>
    <_>
      7. 99.</_>
    <_>
      13. 50.</_>
    <_>
      55. 21.</_>
    <_>
      53. 8.</_>
    <_>
      11. 96.</_>
    <_>
      71. 155.</_>
    <_>
      26. 10.</_>
    <_>
      74. 39.</_>
    <_>
      32. 128.</_>
    <_>
      160. 132.</_>
    <_>
      134. 205.</_>
    <_>
      116. 205.</_>
    <_>
      135. 227.</_>
    <_>
      228. 202.</_>
    <_>
      191. 244.</_>
    <_>
      191. 144.</_>
    <_>
      221. 119.</_>
    <_>
      123. 202.</_>
    <_>
      215. 144.</_>
    <_>
      117. 140.</_>
    <_>
      234. 176.</_>
    <_>
      122. 197.</_>
    <_>
      163. 248.</_>
    <_>
      240. 176.</_>
    <_>
      102. 126.</_>
    <_>
      208. 239.</_>
    <_>
      214. 233.</_>
    <_>
      135. 113.</_>
    <_>
      234. 197.</_>
    <_>
      140. 107.</_>
    <_>
      166. 154.</_></support_vectors>
  <decision_functions>
    <_>
      <sv_count>44</sv_count>
      <rho>0.044439645492593584</rho>
      <alpha>
        0.10000000000000001 0.10000000000000001 0.10000000000000001
        0.10000000000000001 0.10000000000000001 0.10000000000000001
        0.10000000000000001 0.10000000000000001 0.10000000000000001
        0.10000000000000001 0.10000000000000001 0.10000000000000001
        0.10000000000000001 0.10000000000000001 0.10000000000000001
        0.10000000000000001 0.10000000000000001 0.10000000000000001
        0.10000000000000001 0.10000000000000001 0.10000000000000001
        0.10000000000000001 -0.10000000000000001 -0.10000000000000001
        -0.10000000000000001 -0.10000000000000001 -0.10000000000000001
        -0.10000000000000001 -0.10000000000000001 -0.10000000000000001
        -0.10000000000000001 -0.10000000000000001 -0.10000000000000001
        -0.10000000000000001 -0.10000000000000001 -0.10000000000000001
        -0.10000000000000001 -0.10000000000000001 -0.10000000000000001
        -0.10000000000000001 -0.10000000000000001 -0.10000000000000001
        -0.10000000000000001 -0.10000000000000001</alpha>
      <index>
        0 1 2 3 4 5 6 7 8 9 10 11 12 13 14 15 16 17 18 19 20 21 22 23 24
        25 26 27 28 29 30 31 32 33 34 35 36 37 38 39 40 41 42 43</index></_></decision_functions></opencv_ml_svm>
</opencv_storage>
